digraph Tree {
node [shape=box, fontname="helvetica"] ;
edge [fontname="helvetica"] ;
0 [label="Feature_36 <= 0.5\ngini = 0.9\nsamples = 1527\nvalue = [147, 147, 154, 159, 145, 159, 159, 154, 149, 154]"] ;
1 [label="Feature_28 <= 4.5\ngini = 0.557\nsamples = 231\nvalue = [144, 0, 3, 1, 5, 21, 5, 0, 3, 49]"] ;
0 -> 1 [labeldistance=2.5, labelangle=45, headlabel="True"] ;
2 [label="Feature_21 <= 1.0\ngini = 0.188\nsamples = 160\nvalue = [144, 0, 2, 0, 5, 5, 3, 0, 0, 1]"] ;
1 -> 2 ;
3 [label="Feature_53 <= 3.5\ngini = 0.735\nsamples = 14\nvalue = [1, 0, 1, 0, 4, 5, 3, 0, 0, 0]"] ;
2 -> 3 ;
4 [label="gini = 0.0\nsamples = 5\nvalue = [0, 0, 0, 0, 0, 5, 0, 0, 0, 0]"] ;
3 -> 4 ;
5 [label="Feature_37 <= 5.5\ngini = 0.667\nsamples = 9\nvalue = [1, 0, 1, 0, 4, 0, 3, 0, 0, 0]"] ;
3 -> 5 ;
6 [label="Feature_62 <= 3.5\ngini = 0.56\nsamples = 5\nvalue = [1, 0, 1, 0, 0, 0, 3, 0, 0, 0]"] ;
5 -> 6 ;
7 [label="Feature_33 <= 2.0\ngini = 0.5\nsamples = 2\nvalue = [1, 0, 1, 0, 0, 0, 0, 0, 0, 0]"] ;
6 -> 7 ;
8 [label="gini = 0.0\nsamples = 1\nvalue = [0, 0, 1, 0, 0, 0, 0, 0, 0, 0]"] ;
7 -> 8 ;
9 [label="gini = 0.0\nsamples = 1\nvalue = [1, 0, 0, 0, 0, 0, 0, 0, 0, 0]"] ;
7 -> 9 ;
10 [label="gini = 0.0\nsamples = 3\nvalue = [0, 0, 0, 0, 0, 0, 3, 0, 0, 0]"] ;
6 -> 10 ;
11 [label="gini = 0.0\nsamples = 4\nvalue = [0, 0, 0, 0, 4, 0, 0, 0, 0, 0]"] ;
5 -> 11 ;
12 [label="Feature_50 <= 4.5\ngini = 0.041\nsamples = 146\nvalue = [143, 0, 1, 0, 1, 0, 0, 0, 0, 1]"] ;
2 -> 12 ;
13 [label="Feature_54 <= 1.5\ngini = 0.5\nsamples = 2\nvalue = [0, 0, 0, 0, 1, 0, 0, 0, 0, 1]"] ;
12 -> 13 ;
14 [label="gini = 0.0\nsamples = 1\nvalue = [0, 0, 0, 0, 1, 0, 0, 0, 0, 0]"] ;
13 -> 14 ;
15 [label="gini = 0.0\nsamples = 1\nvalue = [0, 0, 0, 0, 0, 0, 0, 0, 0, 1]"] ;
13 -> 15 ;
16 [label="Feature_63 <= 1.5\ngini = 0.014\nsamples = 144\nvalue = [143, 0, 1, 0, 0, 0, 0, 0, 0, 0]"] ;
12 -> 16 ;
17 [label="gini = 0.0\nsamples = 143\nvalue = [143, 0, 0, 0, 0, 0, 0, 0, 0, 0]"] ;
16 -> 17 ;
18 [label="gini = 0.0\nsamples = 1\nvalue = [0, 0, 1, 0, 0, 0, 0, 0, 0, 0]"] ;
16 -> 18 ;
19 [label="Feature_21 <= 9.0\ngini = 0.489\nsamples = 71\nvalue = [0, 0, 1, 1, 0, 16, 2, 0, 3, 48]"] ;
1 -> 19 ;
20 [label="Feature_4 <= 11.0\ngini = 0.467\nsamples = 21\nvalue = [0, 0, 1, 0, 0, 15, 2, 0, 1, 2]"] ;
19 -> 20 ;
21 [label="Feature_54 <= 9.5\ngini = 0.5\nsamples = 4\nvalue = [0, 0, 0, 0, 0, 0, 2, 0, 0, 2]"] ;
20 -> 21 ;
22 [label="gini = 0.0\nsamples = 2\nvalue = [0, 0, 0, 0, 0, 0, 2, 0, 0, 0]"] ;
21 -> 22 ;
23 [label="gini = 0.0\nsamples = 2\nvalue = [0, 0, 0, 0, 0, 0, 0, 0, 0, 2]"] ;
21 -> 23 ;
24 [label="Feature_43 <= 0.5\ngini = 0.215\nsamples = 17\nvalue = [0, 0, 1, 0, 0, 15, 0, 0, 1, 0]"] ;
20 -> 24 ;
25 [label="gini = 0.0\nsamples = 15\nvalue = [0, 0, 0, 0, 0, 15, 0, 0, 0, 0]"] ;
24 -> 25 ;
26 [label="Feature_49 <= 4.5\ngini = 0.5\nsamples = 2\nvalue = [0, 0, 1, 0, 0, 0, 0, 0, 1, 0]"] ;
24 -> 26 ;
27 [label="gini = 0.0\nsamples = 1\nvalue = [0, 0, 0, 0, 0, 0, 0, 0, 1, 0]"] ;
26 -> 27 ;
28 [label="gini = 0.0\nsamples = 1\nvalue = [0, 0, 1, 0, 0, 0, 0, 0, 0, 0]"] ;
26 -> 28 ;
29 [label="Feature_35 <= 4.5\ngini = 0.151\nsamples = 50\nvalue = [0, 0, 0, 1, 0, 1, 0, 0, 2, 46]"] ;
19 -> 29 ;
30 [label="Feature_27 <= 3.5\ngini = 0.042\nsamples = 47\nvalue = [0, 0, 0, 1, 0, 0, 0, 0, 0, 46]"] ;
29 -> 30 ;
31 [label="gini = 0.0\nsamples = 1\nvalue = [0, 0, 0, 1, 0, 0, 0, 0, 0, 0]"] ;
30 -> 31 ;
32 [label="gini = 0.0\nsamples = 46\nvalue = [0, 0, 0, 0, 0, 0, 0, 0, 0, 46]"] ;
30 -> 32 ;
33 [label="Feature_45 <= 6.5\ngini = 0.444\nsamples = 3\nvalue = [0, 0, 0, 0, 0, 1, 0, 0, 2, 0]"] ;
29 -> 33 ;
34 [label="gini = 0.0\nsamples = 2\nvalue = [0, 0, 0, 0, 0, 0, 0, 0, 2, 0]"] ;
33 -> 34 ;
35 [label="gini = 0.0\nsamples = 1\nvalue = [0, 0, 0, 0, 0, 1, 0, 0, 0, 0]"] ;
33 -> 35 ;
36 [label="Feature_21 <= 0.5\ngini = 0.888\nsamples = 1296\nvalue = [3, 147, 151, 158, 140, 138, 154, 154, 146, 105]"] ;
0 -> 36 [labeldistance=2.5, labelangle=-45, headlabel="False"] ;
37 [label="Feature_42 <= 8.5\ngini = 0.734\nsamples = 398\nvalue = [0.0, 34.0, 38.0, 13.0, 27.0, 126.0, 151.0, 5.0, 3.0\n1.0]"] ;
36 -> 37 ;
38 [label="Feature_5 <= 1.5\ngini = 0.61\nsamples = 210\nvalue = [0, 28, 28, 13, 6, 124, 3, 4, 3, 1]"] ;
37 -> 38 ;
39 [label="Feature_19 <= 14.5\ngini = 0.745\nsamples = 83\nvalue = [0.0, 28.0, 28.0, 12.0, 4.0, 1.0, 3.0, 4.0, 2.0, 1.0]"] ;
38 -> 39 ;
40 [label="Feature_37 <= 1.5\ngini = 0.653\nsamples = 52\nvalue = [0, 3, 28, 11, 1, 1, 1, 4, 2, 1]"] ;
39 -> 40 ;
41 [label="Feature_58 <= 0.5\ngini = 0.127\nsamples = 30\nvalue = [0, 1, 28, 0, 0, 0, 0, 0, 1, 0]"] ;
40 -> 41 ;
42 [label="Feature_62 <= 0.5\ngini = 0.5\nsamples = 2\nvalue = [0, 1, 0, 0, 0, 0, 0, 0, 1, 0]"] ;
41 -> 42 ;
43 [label="gini = 0.0\nsamples = 1\nvalue = [0, 1, 0, 0, 0, 0, 0, 0, 0, 0]"] ;
42 -> 43 ;
44 [label="gini = 0.0\nsamples = 1\nvalue = [0, 0, 0, 0, 0, 0, 0, 0, 1, 0]"] ;
42 -> 44 ;
45 [label="gini = 0.0\nsamples = 28\nvalue = [0, 0, 28, 0, 0, 0, 0, 0, 0, 0]"] ;
41 -> 45 ;
46 [label="Feature_51 <= 9.5\ngini = 0.698\nsamples = 22\nvalue = [0, 2, 0, 11, 1, 1, 1, 4, 1, 1]"] ;
40 -> 46 ;
47 [label="Feature_54 <= 9.5\ngini = 0.272\nsamples = 13\nvalue = [0, 0, 0, 11, 0, 1, 0, 0, 0, 1]"] ;
46 -> 47 ;
48 [label="gini = 0.0\nsamples = 11\nvalue = [0, 0, 0, 11, 0, 0, 0, 0, 0, 0]"] ;
47 -> 48 ;
49 [label="Feature_2 <= 9.5\ngini = 0.5\nsamples = 2\nvalue = [0, 0, 0, 0, 0, 1, 0, 0, 0, 1]"] ;
47 -> 49 ;
50 [label="gini = 0.0\nsamples = 1\nvalue = [0, 0, 0, 0, 0, 1, 0, 0, 0, 0]"] ;
49 -> 50 ;
51 [label="gini = 0.0\nsamples = 1\nvalue = [0, 0, 0, 0, 0, 0, 0, 0, 0, 1]"] ;
49 -> 51 ;
52 [label="Feature_60 <= 4.5\ngini = 0.716\nsamples = 9\nvalue = [0, 2, 0, 0, 1, 0, 1, 4, 1, 0]"] ;
46 -> 52 ;
53 [label="gini = 0.0\nsamples = 4\nvalue = [0, 0, 0, 0, 0, 0, 0, 4, 0, 0]"] ;
52 -> 53 ;
54 [label="Feature_52 <= 14.0\ngini = 0.72\nsamples = 5\nvalue = [0, 2, 0, 0, 1, 0, 1, 0, 1, 0]"] ;
52 -> 54 ;
55 [label="Feature_52 <= 5.5\ngini = 0.667\nsamples = 3\nvalue = [0, 0, 0, 0, 1, 0, 1, 0, 1, 0]"] ;
54 -> 55 ;
56 [label="gini = 0.0\nsamples = 1\nvalue = [0, 0, 0, 0, 0, 0, 0, 0, 1, 0]"] ;
55 -> 56 ;
57 [label="Feature_35 <= 15.5\ngini = 0.5\nsamples = 2\nvalue = [0, 0, 0, 0, 1, 0, 1, 0, 0, 0]"] ;
55 -> 57 ;
58 [label="gini = 0.0\nsamples = 1\nvalue = [0, 0, 0, 0, 1, 0, 0, 0, 0, 0]"] ;
57 -> 58 ;
59 [label="gini = 0.0\nsamples = 1\nvalue = [0, 0, 0, 0, 0, 0, 1, 0, 0, 0]"] ;
57 -> 59 ;
60 [label="gini = 0.0\nsamples = 2\nvalue = [0, 2, 0, 0, 0, 0, 0, 0, 0, 0]"] ;
54 -> 60 ;
61 [label="Feature_38 <= 2.0\ngini = 0.335\nsamples = 31\nvalue = [0, 25, 0, 1, 3, 0, 2, 0, 0, 0]"] ;
39 -> 61 ;
62 [label="Feature_28 <= 0.5\ngini = 0.074\nsamples = 26\nvalue = [0, 25, 0, 0, 0, 0, 1, 0, 0, 0]"] ;
61 -> 62 ;
63 [label="gini = 0.0\nsamples = 1\nvalue = [0, 0, 0, 0, 0, 0, 1, 0, 0, 0]"] ;
62 -> 63 ;
64 [label="gini = 0.0\nsamples = 25\nvalue = [0, 25, 0, 0, 0, 0, 0, 0, 0, 0]"] ;
62 -> 64 ;
65 [label="Feature_27 <= 15.5\ngini = 0.56\nsamples = 5\nvalue = [0, 0, 0, 1, 3, 0, 1, 0, 0, 0]"] ;
61 -> 65 ;
66 [label="gini = 0.0\nsamples = 3\nvalue = [0, 0, 0, 0, 3, 0, 0, 0, 0, 0]"] ;
65 -> 66 ;
67 [label="Feature_37 <= 15.5\ngini = 0.5\nsamples = 2\nvalue = [0, 0, 0, 1, 0, 0, 1, 0, 0, 0]"] ;
65 -> 67 ;
68 [label="gini = 0.0\nsamples = 1\nvalue = [0, 0, 0, 0, 0, 0, 1, 0, 0, 0]"] ;
67 -> 68 ;
69 [label="gini = 0.0\nsamples = 1\nvalue = [0, 0, 0, 1, 0, 0, 0, 0, 0, 0]"] ;
67 -> 69 ;
70 [label="Feature_18 <= 4.5\ngini = 0.062\nsamples = 127\nvalue = [0, 0, 0, 1, 2, 123, 0, 0, 1, 0]"] ;
38 -> 70 ;
71 [label="Feature_23 <= 2.5\ngini = 0.5\nsamples = 2\nvalue = [0, 0, 0, 1, 1, 0, 0, 0, 0, 0]"] ;
70 -> 71 ;
72 [label="gini = 0.0\nsamples = 1\nvalue = [0, 0, 0, 1, 0, 0, 0, 0, 0, 0]"] ;
71 -> 72 ;
73 [label="gini = 0.0\nsamples = 1\nvalue = [0, 0, 0, 0, 1, 0, 0, 0, 0, 0]"] ;
71 -> 73 ;
74 [label="Feature_9 <= 15.0\ngini = 0.032\nsamples = 125\nvalue = [0, 0, 0, 0, 1, 123, 0, 0, 1, 0]"] ;
70 -> 74 ;
75 [label="Feature_25 <= 14.5\ngini = 0.016\nsamples = 124\nvalue = [0, 0, 0, 0, 1, 123, 0, 0, 0, 0]"] ;
74 -> 75 ;
76 [label="gini = 0.0\nsamples = 123\nvalue = [0, 0, 0, 0, 0, 123, 0, 0, 0, 0]"] ;
75 -> 76 ;
77 [label="gini = 0.0\nsamples = 1\nvalue = [0, 0, 0, 0, 1, 0, 0, 0, 0, 0]"] ;
75 -> 77 ;
78 [label="gini = 0.0\nsamples = 1\nvalue = [0, 0, 0, 0, 0, 0, 0, 0, 1, 0]"] ;
74 -> 78 ;
79 [label="Feature_54 <= 2.5\ngini = 0.364\nsamples = 188\nvalue = [0.0, 6.0, 10.0, 0.0, 21.0, 2.0, 148.0, 1.0, 0.0, 0.0]"] ;
37 -> 79 ;
80 [label="Feature_38 <= 0.5\ngini = 0.648\nsamples = 39\nvalue = [0, 6, 2, 0, 21, 2, 7, 1, 0, 0]"] ;
79 -> 80 ;
81 [label="Feature_53 <= 8.5\ngini = 0.678\nsamples = 17\nvalue = [0, 6, 2, 0, 2, 0, 7, 0, 0, 0]"] ;
80 -> 81 ;
82 [label="Feature_49 <= 2.0\ngini = 0.56\nsamples = 10\nvalue = [0, 6, 2, 0, 2, 0, 0, 0, 0, 0]"] ;
81 -> 82 ;
83 [label="Feature_61 <= 11.5\ngini = 0.375\nsamples = 8\nvalue = [0, 6, 2, 0, 0, 0, 0, 0, 0, 0]"] ;
82 -> 83 ;
84 [label="gini = 0.0\nsamples = 6\nvalue = [0, 6, 0, 0, 0, 0, 0, 0, 0, 0]"] ;
83 -> 84 ;
85 [label="gini = 0.0\nsamples = 2\nvalue = [0, 0, 2, 0, 0, 0, 0, 0, 0, 0]"] ;
83 -> 85 ;
86 [label="gini = 0.0\nsamples = 2\nvalue = [0, 0, 0, 0, 2, 0, 0, 0, 0, 0]"] ;
82 -> 86 ;
87 [label="gini = 0.0\nsamples = 7\nvalue = [0, 0, 0, 0, 0, 0, 7, 0, 0, 0]"] ;
81 -> 87 ;
88 [label="Feature_44 <= 7.5\ngini = 0.244\nsamples = 22\nvalue = [0, 0, 0, 0, 19, 2, 0, 1, 0, 0]"] ;
80 -> 88 ;
89 [label="Feature_45 <= 9.0\ngini = 0.444\nsamples = 3\nvalue = [0, 0, 0, 0, 0, 2, 0, 1, 0, 0]"] ;
88 -> 89 ;
90 [label="gini = 0.0\nsamples = 1\nvalue = [0, 0, 0, 0, 0, 0, 0, 1, 0, 0]"] ;
89 -> 90 ;
91 [label="gini = 0.0\nsamples = 2\nvalue = [0, 0, 0, 0, 0, 2, 0, 0, 0, 0]"] ;
89 -> 91 ;
92 [label="gini = 0.0\nsamples = 19\nvalue = [0, 0, 0, 0, 19, 0, 0, 0, 0, 0]"] ;
88 -> 92 ;
93 [label="Feature_57 <= 0.5\ngini = 0.102\nsamples = 149\nvalue = [0, 0, 8, 0, 0, 0, 141, 0, 0, 0]"] ;
79 -> 93 ;
94 [label="gini = 0.0\nsamples = 141\nvalue = [0, 0, 0, 0, 0, 0, 141, 0, 0, 0]"] ;
93 -> 94 ;
95 [label="gini = 0.0\nsamples = 8\nvalue = [0, 0, 8, 0, 0, 0, 0, 0, 0, 0]"] ;
93 -> 95 ;
96 [label="Feature_60 <= 7.5\ngini = 0.86\nsamples = 898\nvalue = [3.0, 113.0, 113.0, 145.0, 113.0, 12.0, 3.0, 149.0\n143.0, 104.0]"] ;
36 -> 96 ;
97 [label="Feature_26 <= 11.5\ngini = 0.549\nsamples = 212\nvalue = [0, 8, 6, 9, 22, 4, 0, 139, 11, 13]"] ;
96 -> 97 ;
98 [label="Feature_53 <= 3.5\ngini = 0.336\nsamples = 157\nvalue = [0, 2, 6, 9, 2, 0, 0, 127, 10, 1]"] ;
97 -> 98 ;
99 [label="Feature_37 <= 0.5\ngini = 0.185\nsamples = 141\nvalue = [0, 0, 0, 4, 2, 0, 0, 127, 7, 1]"] ;
98 -> 99 ;
100 [label="Feature_18 <= 2.0\ngini = 0.667\nsamples = 12\nvalue = [0, 0, 0, 3, 1, 0, 0, 1, 6, 1]"] ;
99 -> 100 ;
101 [label="gini = 0.0\nsamples = 3\nvalue = [0, 0, 0, 3, 0, 0, 0, 0, 0, 0]"] ;
100 -> 101 ;
102 [label="Feature_59 <= 13.0\ngini = 0.519\nsamples = 9\nvalue = [0, 0, 0, 0, 1, 0, 0, 1, 6, 1]"] ;
100 -> 102 ;
103 [label="Feature_50 <= 3.0\ngini = 0.667\nsamples = 3\nvalue = [0, 0, 0, 0, 1, 0, 0, 1, 0, 1]"] ;
102 -> 103 ;
104 [label="gini = 0.0\nsamples = 1\nvalue = [0, 0, 0, 0, 0, 0, 0, 0, 0, 1]"] ;
103 -> 104 ;
105 [label="Feature_29 <= 3.0\ngini = 0.5\nsamples = 2\nvalue = [0, 0, 0, 0, 1, 0, 0, 1, 0, 0]"] ;
103 -> 105 ;
106 [label="gini = 0.0\nsamples = 1\nvalue = [0, 0, 0, 0, 0, 0, 0, 1, 0, 0]"] ;
105 -> 106 ;
107 [label="gini = 0.0\nsamples = 1\nvalue = [0, 0, 0, 0, 1, 0, 0, 0, 0, 0]"] ;
105 -> 107 ;
108 [label="gini = 0.0\nsamples = 6\nvalue = [0, 0, 0, 0, 0, 0, 0, 0, 6, 0]"] ;
102 -> 108 ;
109 [label="Feature_51 <= 2.0\ngini = 0.046\nsamples = 129\nvalue = [0, 0, 0, 1, 1, 0, 0, 126, 1, 0]"] ;
99 -> 109 ;
110 [label="gini = 0.0\nsamples = 1\nvalue = [0, 0, 0, 1, 0, 0, 0, 0, 0, 0]"] ;
109 -> 110 ;
111 [label="Feature_19 <= 13.5\ngini = 0.031\nsamples = 128\nvalue = [0, 0, 0, 0, 1, 0, 0, 126, 1, 0]"] ;
109 -> 111 ;
112 [label="Feature_4 <= 2.5\ngini = 0.016\nsamples = 127\nvalue = [0, 0, 0, 0, 1, 0, 0, 126, 0, 0]"] ;
111 -> 112 ;
113 [label="gini = 0.0\nsamples = 1\nvalue = [0, 0, 0, 0, 1, 0, 0, 0, 0, 0]"] ;
112 -> 113 ;
114 [label="gini = 0.0\nsamples = 126\nvalue = [0, 0, 0, 0, 0, 0, 0, 126, 0, 0]"] ;
112 -> 114 ;
115 [label="gini = 0.0\nsamples = 1\nvalue = [0, 0, 0, 0, 0, 0, 0, 0, 1, 0]"] ;
111 -> 115 ;
116 [label="Feature_51 <= 15.5\ngini = 0.711\nsamples = 16\nvalue = [0, 2, 6, 5, 0, 0, 0, 0, 3, 0]"] ;
98 -> 116 ;
117 [label="Feature_42 <= 0.5\ngini = 0.62\nsamples = 10\nvalue = [0, 2, 0, 5, 0, 0, 0, 0, 3, 0]"] ;
116 -> 117 ;
118 [label="gini = 0.0\nsamples = 5\nvalue = [0, 0, 0, 5, 0, 0, 0, 0, 0, 0]"] ;
117 -> 118 ;
119 [label="Feature_28 <= 15.5\ngini = 0.48\nsamples = 5\nvalue = [0, 2, 0, 0, 0, 0, 0, 0, 3, 0]"] ;
117 -> 119 ;
120 [label="gini = 0.0\nsamples = 3\nvalue = [0, 0, 0, 0, 0, 0, 0, 0, 3, 0]"] ;
119 -> 120 ;
121 [label="gini = 0.0\nsamples = 2\nvalue = [0, 2, 0, 0, 0, 0, 0, 0, 0, 0]"] ;
119 -> 121 ;
122 [label="gini = 0.0\nsamples = 6\nvalue = [0, 0, 6, 0, 0, 0, 0, 0, 0, 0]"] ;
116 -> 122 ;
123 [label="Feature_5 <= 1.0\ngini = 0.755\nsamples = 55\nvalue = [0, 6, 0, 0, 20, 4, 0, 12, 1, 12]"] ;
97 -> 123 ;
124 [label="Feature_12 <= 9.5\ngini = 0.318\nsamples = 22\nvalue = [0, 1, 0, 0, 18, 2, 0, 0, 0, 1]"] ;
123 -> 124 ;
125 [label="gini = 0.0\nsamples = 18\nvalue = [0, 0, 0, 0, 18, 0, 0, 0, 0, 0]"] ;
124 -> 125 ;
126 [label="Feature_18 <= 11.0\ngini = 0.625\nsamples = 4\nvalue = [0, 1, 0, 0, 0, 2, 0, 0, 0, 1]"] ;
124 -> 126 ;
127 [label="Feature_28 <= 14.5\ngini = 0.5\nsamples = 2\nvalue = [0, 1, 0, 0, 0, 0, 0, 0, 0, 1]"] ;
126 -> 127 ;
128 [label="gini = 0.0\nsamples = 1\nvalue = [0, 0, 0, 0, 0, 0, 0, 0, 0, 1]"] ;
127 -> 128 ;
129 [label="gini = 0.0\nsamples = 1\nvalue = [0, 1, 0, 0, 0, 0, 0, 0, 0, 0]"] ;
127 -> 129 ;
130 [label="gini = 0.0\nsamples = 2\nvalue = [0, 0, 0, 0, 0, 2, 0, 0, 0, 0]"] ;
126 -> 130 ;
131 [label="Feature_17 <= 1.5\ngini = 0.725\nsamples = 33\nvalue = [0, 5, 0, 0, 2, 2, 0, 12, 1, 11]"] ;
123 -> 131 ;
132 [label="Feature_10 <= 5.5\ngini = 0.537\nsamples = 18\nvalue = [0, 5, 0, 0, 0, 0, 0, 11, 0, 2]"] ;
131 -> 132 ;
133 [label="Feature_6 <= 9.5\ngini = 0.32\nsamples = 5\nvalue = [0, 4, 0, 0, 0, 0, 0, 0, 0, 1]"] ;
132 -> 133 ;
134 [label="gini = 0.0\nsamples = 4\nvalue = [0, 4, 0, 0, 0, 0, 0, 0, 0, 0]"] ;
133 -> 134 ;
135 [label="gini = 0.0\nsamples = 1\nvalue = [0, 0, 0, 0, 0, 0, 0, 0, 0, 1]"] ;
133 -> 135 ;
136 [label="Feature_54 <= 1.0\ngini = 0.272\nsamples = 13\nvalue = [0, 1, 0, 0, 0, 0, 0, 11, 0, 1]"] ;
132 -> 136 ;
137 [label="Feature_42 <= 9.5\ngini = 0.153\nsamples = 12\nvalue = [0, 1, 0, 0, 0, 0, 0, 11, 0, 0]"] ;
136 -> 137 ;
138 [label="gini = 0.0\nsamples = 11\nvalue = [0, 0, 0, 0, 0, 0, 0, 11, 0, 0]"] ;
137 -> 138 ;
139 [label="gini = 0.0\nsamples = 1\nvalue = [0, 1, 0, 0, 0, 0, 0, 0, 0, 0]"] ;
137 -> 139 ;
140 [label="gini = 0.0\nsamples = 1\nvalue = [0, 0, 0, 0, 0, 0, 0, 0, 0, 1]"] ;
136 -> 140 ;
141 [label="Feature_42 <= 0.5\ngini = 0.596\nsamples = 15\nvalue = [0, 0, 0, 0, 2, 2, 0, 1, 1, 9]"] ;
131 -> 141 ;
142 [label="Feature_21 <= 4.5\ngini = 0.298\nsamples = 11\nvalue = [0, 0, 0, 0, 0, 2, 0, 0, 0, 9]"] ;
141 -> 142 ;
143 [label="gini = 0.0\nsamples = 2\nvalue = [0, 0, 0, 0, 0, 2, 0, 0, 0, 0]"] ;
142 -> 143 ;
144 [label="gini = 0.0\nsamples = 9\nvalue = [0, 0, 0, 0, 0, 0, 0, 0, 0, 9]"] ;
142 -> 144 ;
145 [label="Feature_17 <= 2.5\ngini = 0.625\nsamples = 4\nvalue = [0, 0, 0, 0, 2, 0, 0, 1, 1, 0]"] ;
141 -> 145 ;
146 [label="gini = 0.0\nsamples = 2\nvalue = [0, 0, 0, 0, 2, 0, 0, 0, 0, 0]"] ;
145 -> 146 ;
147 [label="Feature_43 <= 8.5\ngini = 0.5\nsamples = 2\nvalue = [0, 0, 0, 0, 0, 0, 0, 1, 1, 0]"] ;
145 -> 147 ;
148 [label="gini = 0.0\nsamples = 1\nvalue = [0, 0, 0, 0, 0, 0, 0, 0, 1, 0]"] ;
147 -> 148 ;
149 [label="gini = 0.0\nsamples = 1\nvalue = [0, 0, 0, 0, 0, 0, 0, 1, 0, 0]"] ;
147 -> 149 ;
150 [label="Feature_33 <= 3.5\ngini = 0.84\nsamples = 686\nvalue = [3, 105, 107, 136, 91, 8, 3, 10, 132, 91]"] ;
96 -> 150 ;
151 [label="Feature_43 <= 1.5\ngini = 0.807\nsamples = 568\nvalue = [1.0, 87.0, 106.0, 135.0, 3.0, 7.0, 1.0, 8.0, 130.0\n90.0]"] ;
150 -> 151 ;
152 [label="Feature_26 <= 4.5\ngini = 0.635\nsamples = 240\nvalue = [0, 15, 6, 119, 0, 7, 0, 0, 13, 80]"] ;
151 -> 152 ;
153 [label="Feature_29 <= 15.5\ngini = 0.269\nsamples = 128\nvalue = [0, 4, 6, 109, 0, 0, 0, 0, 3, 6]"] ;
152 -> 153 ;
154 [label="Feature_63 <= 3.0\ngini = 0.145\nsamples = 118\nvalue = [0, 2, 3, 109, 0, 0, 0, 0, 3, 1]"] ;
153 -> 154 ;
155 [label="Feature_59 <= 6.5\ngini = 0.069\nsamples = 113\nvalue = [0, 0, 0, 109, 0, 0, 0, 0, 3, 1]"] ;
154 -> 155 ;
156 [label="gini = 0.0\nsamples = 3\nvalue = [0, 0, 0, 0, 0, 0, 0, 0, 3, 0]"] ;
155 -> 156 ;
157 [label="Feature_13 <= 3.5\ngini = 0.018\nsamples = 110\nvalue = [0, 0, 0, 109, 0, 0, 0, 0, 0, 1]"] ;
155 -> 157 ;
158 [label="Feature_37 <= 12.5\ngini = 0.444\nsamples = 3\nvalue = [0, 0, 0, 2, 0, 0, 0, 0, 0, 1]"] ;
157 -> 158 ;
159 [label="gini = 0.0\nsamples = 1\nvalue = [0, 0, 0, 0, 0, 0, 0, 0, 0, 1]"] ;
158 -> 159 ;
160 [label="gini = 0.0\nsamples = 2\nvalue = [0, 0, 0, 2, 0, 0, 0, 0, 0, 0]"] ;
158 -> 160 ;
161 [label="gini = 0.0\nsamples = 107\nvalue = [0, 0, 0, 107, 0, 0, 0, 0, 0, 0]"] ;
157 -> 161 ;
162 [label="Feature_18 <= 1.5\ngini = 0.48\nsamples = 5\nvalue = [0, 2, 3, 0, 0, 0, 0, 0, 0, 0]"] ;
154 -> 162 ;
163 [label="gini = 0.0\nsamples = 2\nvalue = [0, 2, 0, 0, 0, 0, 0, 0, 0, 0]"] ;
162 -> 163 ;
164 [label="gini = 0.0\nsamples = 3\nvalue = [0, 0, 3, 0, 0, 0, 0, 0, 0, 0]"] ;
162 -> 164 ;
165 [label="Feature_46 <= 2.0\ngini = 0.62\nsamples = 10\nvalue = [0, 2, 3, 0, 0, 0, 0, 0, 0, 5]"] ;
153 -> 165 ;
166 [label="Feature_63 <= 1.5\ngini = 0.48\nsamples = 5\nvalue = [0, 2, 3, 0, 0, 0, 0, 0, 0, 0]"] ;
165 -> 166 ;
167 [label="gini = 0.0\nsamples = 2\nvalue = [0, 2, 0, 0, 0, 0, 0, 0, 0, 0]"] ;
166 -> 167 ;
168 [label="gini = 0.0\nsamples = 3\nvalue = [0, 0, 3, 0, 0, 0, 0, 0, 0, 0]"] ;
166 -> 168 ;
169 [label="gini = 0.0\nsamples = 5\nvalue = [0, 0, 0, 0, 0, 0, 0, 0, 0, 5]"] ;
165 -> 169 ;
170 [label="Feature_30 <= 0.5\ngini = 0.534\nsamples = 112\nvalue = [0, 11, 0, 10, 0, 7, 0, 0, 10, 74]"] ;
152 -> 170 ;
171 [label="Feature_41 <= 1.5\ngini = 0.784\nsamples = 44\nvalue = [0, 7, 0, 10, 0, 6, 0, 0, 8, 13]"] ;
170 -> 171 ;
172 [label="Feature_10 <= 6.5\ngini = 0.72\nsamples = 35\nvalue = [0, 7, 0, 10, 0, 5, 0, 0, 0, 13]"] ;
171 -> 172 ;
173 [label="Feature_19 <= 9.0\ngini = 0.219\nsamples = 8\nvalue = [0, 7, 0, 0, 0, 0, 0, 0, 0, 1]"] ;
172 -> 173 ;
174 [label="gini = 0.0\nsamples = 1\nvalue = [0, 0, 0, 0, 0, 0, 0, 0, 0, 1]"] ;
173 -> 174 ;
175 [label="gini = 0.0\nsamples = 7\nvalue = [0, 7, 0, 0, 0, 0, 0, 0, 0, 0]"] ;
173 -> 175 ;
176 [label="Feature_29 <= 6.0\ngini = 0.631\nsamples = 27\nvalue = [0, 0, 0, 10, 0, 5, 0, 0, 0, 12]"] ;
172 -> 176 ;
177 [label="Feature_46 <= 0.5\ngini = 0.32\nsamples = 10\nvalue = [0, 0, 0, 8, 0, 0, 0, 0, 0, 2]"] ;
176 -> 177 ;
178 [label="gini = 0.0\nsamples = 2\nvalue = [0, 0, 0, 0, 0, 0, 0, 0, 0, 2]"] ;
177 -> 178 ;
179 [label="gini = 0.0\nsamples = 8\nvalue = [0, 0, 0, 8, 0, 0, 0, 0, 0, 0]"] ;
177 -> 179 ;
180 [label="Feature_18 <= 15.5\ngini = 0.554\nsamples = 17\nvalue = [0, 0, 0, 2, 0, 5, 0, 0, 0, 10]"] ;
176 -> 180 ;
181 [label="Feature_25 <= 1.5\ngini = 0.379\nsamples = 13\nvalue = [0, 0, 0, 2, 0, 1, 0, 0, 0, 10]"] ;
180 -> 181 ;
182 [label="Feature_19 <= 10.5\ngini = 0.625\nsamples = 4\nvalue = [0, 0, 0, 2, 0, 1, 0, 0, 0, 1]"] ;
181 -> 182 ;
183 [label="gini = 0.0\nsamples = 2\nvalue = [0, 0, 0, 2, 0, 0, 0, 0, 0, 0]"] ;
182 -> 183 ;
184 [label="Feature_45 <= 12.5\ngini = 0.5\nsamples = 2\nvalue = [0, 0, 0, 0, 0, 1, 0, 0, 0, 1]"] ;
182 -> 184 ;
185 [label="gini = 0.0\nsamples = 1\nvalue = [0, 0, 0, 0, 0, 0, 0, 0, 0, 1]"] ;
184 -> 185 ;
186 [label="gini = 0.0\nsamples = 1\nvalue = [0, 0, 0, 0, 0, 1, 0, 0, 0, 0]"] ;
184 -> 186 ;
187 [label="gini = 0.0\nsamples = 9\nvalue = [0, 0, 0, 0, 0, 0, 0, 0, 0, 9]"] ;
181 -> 187 ;
188 [label="gini = 0.0\nsamples = 4\nvalue = [0, 0, 0, 0, 0, 4, 0, 0, 0, 0]"] ;
180 -> 188 ;
189 [label="Feature_18 <= 15.0\ngini = 0.198\nsamples = 9\nvalue = [0, 0, 0, 0, 0, 1, 0, 0, 8, 0]"] ;
171 -> 189 ;
190 [label="gini = 0.0\nsamples = 8\nvalue = [0, 0, 0, 0, 0, 0, 0, 0, 8, 0]"] ;
189 -> 190 ;
191 [label="gini = 0.0\nsamples = 1\nvalue = [0, 0, 0, 0, 0, 1, 0, 0, 0, 0]"] ;
189 -> 191 ;
192 [label="Feature_19 <= 14.0\ngini = 0.191\nsamples = 68\nvalue = [0, 4, 0, 0, 0, 1, 0, 0, 2, 61]"] ;
170 -> 192 ;
193 [label="Feature_21 <= 10.5\ngini = 0.095\nsamples = 61\nvalue = [0, 0, 0, 0, 0, 1, 0, 0, 2, 58]"] ;
192 -> 193 ;
194 [label="Feature_51 <= 1.0\ngini = 0.64\nsamples = 5\nvalue = [0, 0, 0, 0, 0, 1, 0, 0, 2, 2]"] ;
193 -> 194 ;
195 [label="gini = 0.0\nsamples = 2\nvalue = [0, 0, 0, 0, 0, 0, 0, 0, 0, 2]"] ;
194 -> 195 ;
196 [label="Feature_61 <= 3.5\ngini = 0.444\nsamples = 3\nvalue = [0, 0, 0, 0, 0, 1, 0, 0, 2, 0]"] ;
194 -> 196 ;
197 [label="gini = 0.0\nsamples = 1\nvalue = [0, 0, 0, 0, 0, 1, 0, 0, 0, 0]"] ;
196 -> 197 ;
198 [label="gini = 0.0\nsamples = 2\nvalue = [0, 0, 0, 0, 0, 0, 0, 0, 2, 0]"] ;
196 -> 198 ;
199 [label="gini = 0.0\nsamples = 56\nvalue = [0, 0, 0, 0, 0, 0, 0, 0, 0, 56]"] ;
193 -> 199 ;
200 [label="Feature_46 <= 2.0\ngini = 0.49\nsamples = 7\nvalue = [0, 4, 0, 0, 0, 0, 0, 0, 0, 3]"] ;
192 -> 200 ;
201 [label="gini = 0.0\nsamples = 3\nvalue = [0, 0, 0, 0, 0, 0, 0, 0, 0, 3]"] ;
200 -> 201 ;
202 [label="gini = 0.0\nsamples = 4\nvalue = [0, 4, 0, 0, 0, 0, 0, 0, 0, 0]"] ;
200 -> 202 ;
203 [label="Feature_27 <= 10.5\ngini = 0.728\nsamples = 328\nvalue = [1, 72, 100, 16, 3, 0, 1, 8, 117, 10]"] ;
151 -> 203 ;
204 [label="Feature_26 <= 6.5\ngini = 0.522\nsamples = 140\nvalue = [1.0, 4.0, 94.0, 6.0, 2.0, 0.0, 0.0, 7.0, 20.0, 6.0]"] ;
203 -> 204 ;
205 [label="Feature_38 <= 2.0\ngini = 0.297\nsamples = 108\nvalue = [0, 3, 90, 6, 0, 0, 0, 7, 2, 0]"] ;
204 -> 205 ;
206 [label="Feature_51 <= 6.5\ngini = 0.171\nsamples = 99\nvalue = [0, 3, 90, 4, 0, 0, 0, 0, 2, 0]"] ;
205 -> 206 ;
207 [label="Feature_44 <= 12.0\ngini = 0.653\nsamples = 7\nvalue = [0, 0, 2, 3, 0, 0, 0, 0, 2, 0]"] ;
206 -> 207 ;
208 [label="Feature_20 <= 9.5\ngini = 0.5\nsamples = 4\nvalue = [0, 0, 2, 0, 0, 0, 0, 0, 2, 0]"] ;
207 -> 208 ;
209 [label="gini = 0.0\nsamples = 2\nvalue = [0, 0, 0, 0, 0, 0, 0, 0, 2, 0]"] ;
208 -> 209 ;
210 [label="gini = 0.0\nsamples = 2\nvalue = [0, 0, 2, 0, 0, 0, 0, 0, 0, 0]"] ;
208 -> 210 ;
211 [label="gini = 0.0\nsamples = 3\nvalue = [0, 0, 0, 3, 0, 0, 0, 0, 0, 0]"] ;
207 -> 211 ;
212 [label="Feature_19 <= 13.5\ngini = 0.084\nsamples = 92\nvalue = [0, 3, 88, 1, 0, 0, 0, 0, 0, 0]"] ;
206 -> 212 ;
213 [label="Feature_45 <= 14.0\ngini = 0.044\nsamples = 90\nvalue = [0, 1, 88, 1, 0, 0, 0, 0, 0, 0]"] ;
212 -> 213 ;
214 [label="Feature_50 <= 0.5\ngini = 0.022\nsamples = 89\nvalue = [0, 1, 88, 0, 0, 0, 0, 0, 0, 0]"] ;
213 -> 214 ;
215 [label="Feature_37 <= 3.0\ngini = 0.5\nsamples = 2\nvalue = [0, 1, 1, 0, 0, 0, 0, 0, 0, 0]"] ;
214 -> 215 ;
216 [label="gini = 0.0\nsamples = 1\nvalue = [0, 0, 1, 0, 0, 0, 0, 0, 0, 0]"] ;
215 -> 216 ;
217 [label="gini = 0.0\nsamples = 1\nvalue = [0, 1, 0, 0, 0, 0, 0, 0, 0, 0]"] ;
215 -> 217 ;
218 [label="gini = 0.0\nsamples = 87\nvalue = [0, 0, 87, 0, 0, 0, 0, 0, 0, 0]"] ;
214 -> 218 ;
219 [label="gini = 0.0\nsamples = 1\nvalue = [0, 0, 0, 1, 0, 0, 0, 0, 0, 0]"] ;
213 -> 219 ;
220 [label="gini = 0.0\nsamples = 2\nvalue = [0, 2, 0, 0, 0, 0, 0, 0, 0, 0]"] ;
212 -> 220 ;
221 [label="Feature_61 <= 3.5\ngini = 0.346\nsamples = 9\nvalue = [0, 0, 0, 2, 0, 0, 0, 7, 0, 0]"] ;
205 -> 221 ;
222 [label="gini = 0.0\nsamples = 7\nvalue = [0, 0, 0, 0, 0, 0, 0, 7, 0, 0]"] ;
221 -> 222 ;
223 [label="gini = 0.0\nsamples = 2\nvalue = [0, 0, 0, 2, 0, 0, 0, 0, 0, 0]"] ;
221 -> 223 ;
224 [label="Feature_38 <= 0.5\ngini = 0.627\nsamples = 32\nvalue = [1, 1, 4, 0, 2, 0, 0, 0, 18, 6]"] ;
204 -> 224 ;
225 [label="Feature_62 <= 6.5\ngini = 0.42\nsamples = 23\nvalue = [1, 1, 4, 0, 0, 0, 0, 0, 17, 0]"] ;
224 -> 225 ;
226 [label="Feature_10 <= 1.0\ngini = 0.194\nsamples = 19\nvalue = [1, 1, 0, 0, 0, 0, 0, 0, 17, 0]"] ;
225 -> 226 ;
227 [label="gini = 0.0\nsamples = 1\nvalue = [0, 1, 0, 0, 0, 0, 0, 0, 0, 0]"] ;
226 -> 227 ;
228 [label="Feature_28 <= 1.5\ngini = 0.105\nsamples = 18\nvalue = [1, 0, 0, 0, 0, 0, 0, 0, 17, 0]"] ;
226 -> 228 ;
229 [label="gini = 0.0\nsamples = 1\nvalue = [1, 0, 0, 0, 0, 0, 0, 0, 0, 0]"] ;
228 -> 229 ;
230 [label="gini = 0.0\nsamples = 17\nvalue = [0, 0, 0, 0, 0, 0, 0, 0, 17, 0]"] ;
228 -> 230 ;
231 [label="gini = 0.0\nsamples = 4\nvalue = [0, 0, 4, 0, 0, 0, 0, 0, 0, 0]"] ;
225 -> 231 ;
232 [label="Feature_20 <= 1.5\ngini = 0.494\nsamples = 9\nvalue = [0, 0, 0, 0, 2, 0, 0, 0, 1, 6]"] ;
224 -> 232 ;
233 [label="Feature_33 <= 1.0\ngini = 0.444\nsamples = 3\nvalue = [0, 0, 0, 0, 2, 0, 0, 0, 1, 0]"] ;
232 -> 233 ;
234 [label="gini = 0.0\nsamples = 1\nvalue = [0, 0, 0, 0, 0, 0, 0, 0, 1, 0]"] ;
233 -> 234 ;
235 [label="gini = 0.0\nsamples = 2\nvalue = [0, 0, 0, 0, 2, 0, 0, 0, 0, 0]"] ;
233 -> 235 ;
236 [label="gini = 0.0\nsamples = 6\nvalue = [0, 0, 0, 0, 0, 0, 0, 0, 0, 6]"] ;
232 -> 236 ;
237 [label="Feature_20 <= 15.5\ngini = 0.599\nsamples = 188\nvalue = [0.0, 68.0, 6.0, 10.0, 1.0, 0.0, 1.0, 1.0, 97.0, 4.0]"] ;
203 -> 237 ;
238 [label="Feature_18 <= 2.5\ngini = 0.291\nsamples = 105\nvalue = [0, 5, 1, 5, 0, 0, 1, 1, 88, 4]"] ;
237 -> 238 ;
239 [label="Feature_19 <= 10.0\ngini = 0.68\nsamples = 10\nvalue = [0, 2, 1, 5, 0, 0, 1, 0, 1, 0]"] ;
238 -> 239 ;
240 [label="gini = 0.0\nsamples = 5\nvalue = [0, 0, 0, 5, 0, 0, 0, 0, 0, 0]"] ;
239 -> 240 ;
241 [label="Feature_51 <= 14.5\ngini = 0.72\nsamples = 5\nvalue = [0, 2, 1, 0, 0, 0, 1, 0, 1, 0]"] ;
239 -> 241 ;
242 [label="Feature_50 <= 3.0\ngini = 0.667\nsamples = 3\nvalue = [0, 0, 1, 0, 0, 0, 1, 0, 1, 0]"] ;
241 -> 242 ;
243 [label="gini = 0.0\nsamples = 1\nvalue = [0, 0, 0, 0, 0, 0, 1, 0, 0, 0]"] ;
242 -> 243 ;
244 [label="Feature_21 <= 6.0\ngini = 0.5\nsamples = 2\nvalue = [0, 0, 1, 0, 0, 0, 0, 0, 1, 0]"] ;
242 -> 244 ;
245 [label="gini = 0.0\nsamples = 1\nvalue = [0, 0, 1, 0, 0, 0, 0, 0, 0, 0]"] ;
244 -> 245 ;
246 [label="gini = 0.0\nsamples = 1\nvalue = [0, 0, 0, 0, 0, 0, 0, 0, 1, 0]"] ;
244 -> 246 ;
247 [label="gini = 0.0\nsamples = 2\nvalue = [0, 2, 0, 0, 0, 0, 0, 0, 0, 0]"] ;
241 -> 247 ;
248 [label="Feature_21 <= 4.0\ngini = 0.158\nsamples = 95\nvalue = [0, 3, 0, 0, 0, 0, 0, 1, 87, 4]"] ;
238 -> 248 ;
249 [label="Feature_26 <= 7.5\ngini = 0.48\nsamples = 5\nvalue = [0, 3, 0, 0, 0, 0, 0, 0, 2, 0]"] ;
248 -> 249 ;
250 [label="gini = 0.0\nsamples = 2\nvalue = [0, 0, 0, 0, 0, 0, 0, 0, 2, 0]"] ;
249 -> 250 ;
251 [label="gini = 0.0\nsamples = 3\nvalue = [0, 3, 0, 0, 0, 0, 0, 0, 0, 0]"] ;
249 -> 251 ;
252 [label="Feature_30 <= 7.5\ngini = 0.106\nsamples = 90\nvalue = [0, 0, 0, 0, 0, 0, 0, 1, 85, 4]"] ;
248 -> 252 ;
253 [label="Feature_50 <= 2.0\ngini = 0.066\nsamples = 88\nvalue = [0, 0, 0, 0, 0, 0, 0, 0, 85, 3]"] ;
252 -> 253 ;
254 [label="Feature_14 <= 4.5\ngini = 0.444\nsamples = 9\nvalue = [0, 0, 0, 0, 0, 0, 0, 0, 6, 3]"] ;
253 -> 254 ;
255 [label="gini = 0.0\nsamples = 3\nvalue = [0, 0, 0, 0, 0, 0, 0, 0, 0, 3]"] ;
254 -> 255 ;
256 [label="gini = 0.0\nsamples = 6\nvalue = [0, 0, 0, 0, 0, 0, 0, 0, 6, 0]"] ;
254 -> 256 ;
257 [label="gini = 0.0\nsamples = 79\nvalue = [0, 0, 0, 0, 0, 0, 0, 0, 79, 0]"] ;
253 -> 257 ;
258 [label="Feature_19 <= 1.5\ngini = 0.5\nsamples = 2\nvalue = [0, 0, 0, 0, 0, 0, 0, 1, 0, 1]"] ;
252 -> 258 ;
259 [label="gini = 0.0\nsamples = 1\nvalue = [0, 0, 0, 0, 0, 0, 0, 0, 0, 1]"] ;
258 -> 259 ;
260 [label="gini = 0.0\nsamples = 1\nvalue = [0, 0, 0, 0, 0, 0, 0, 1, 0, 0]"] ;
258 -> 260 ;
261 [label="Feature_10 <= 13.5\ngini = 0.405\nsamples = 83\nvalue = [0, 63, 5, 5, 1, 0, 0, 0, 9, 0]"] ;
237 -> 261 ;
262 [label="Feature_52 <= 7.5\ngini = 0.187\nsamples = 70\nvalue = [0, 63, 1, 2, 1, 0, 0, 0, 3, 0]"] ;
261 -> 262 ;
263 [label="Feature_26 <= 8.5\ngini = 0.444\nsamples = 3\nvalue = [0, 0, 0, 1, 0, 0, 0, 0, 2, 0]"] ;
262 -> 263 ;
264 [label="gini = 0.0\nsamples = 2\nvalue = [0, 0, 0, 0, 0, 0, 0, 0, 2, 0]"] ;
263 -> 264 ;
265 [label="gini = 0.0\nsamples = 1\nvalue = [0, 0, 0, 1, 0, 0, 0, 0, 0, 0]"] ;
263 -> 265 ;
266 [label="Feature_19 <= 6.5\ngini = 0.115\nsamples = 67\nvalue = [0, 63, 1, 1, 1, 0, 0, 0, 1, 0]"] ;
262 -> 266 ;
267 [label="Feature_41 <= 1.0\ngini = 0.5\nsamples = 2\nvalue = [0, 0, 1, 1, 0, 0, 0, 0, 0, 0]"] ;
266 -> 267 ;
268 [label="gini = 0.0\nsamples = 1\nvalue = [0, 0, 0, 1, 0, 0, 0, 0, 0, 0]"] ;
267 -> 268 ;
269 [label="gini = 0.0\nsamples = 1\nvalue = [0, 0, 1, 0, 0, 0, 0, 0, 0, 0]"] ;
267 -> 269 ;
270 [label="Feature_41 <= 8.5\ngini = 0.06\nsamples = 65\nvalue = [0, 63, 0, 0, 1, 0, 0, 0, 1, 0]"] ;
266 -> 270 ;
271 [label="Feature_36 <= 7.0\ngini = 0.031\nsamples = 64\nvalue = [0, 63, 0, 0, 0, 0, 0, 0, 1, 0]"] ;
270 -> 271 ;
272 [label="gini = 0.0\nsamples = 1\nvalue = [0, 0, 0, 0, 0, 0, 0, 0, 1, 0]"] ;
271 -> 272 ;
273 [label="gini = 0.0\nsamples = 63\nvalue = [0, 63, 0, 0, 0, 0, 0, 0, 0, 0]"] ;
271 -> 273 ;
274 [label="gini = 0.0\nsamples = 1\nvalue = [0, 0, 0, 0, 1, 0, 0, 0, 0, 0]"] ;
270 -> 274 ;
275 [label="Feature_17 <= 6.0\ngini = 0.639\nsamples = 13\nvalue = [0, 0, 4, 3, 0, 0, 0, 0, 6, 0]"] ;
261 -> 275 ;
276 [label="Feature_42 <= 5.0\ngini = 0.444\nsamples = 9\nvalue = [0, 0, 0, 3, 0, 0, 0, 0, 6, 0]"] ;
275 -> 276 ;
277 [label="gini = 0.0\nsamples = 3\nvalue = [0, 0, 0, 3, 0, 0, 0, 0, 0, 0]"] ;
276 -> 277 ;
278 [label="gini = 0.0\nsamples = 6\nvalue = [0, 0, 0, 0, 0, 0, 0, 0, 6, 0]"] ;
276 -> 278 ;
279 [label="gini = 0.0\nsamples = 4\nvalue = [0, 0, 4, 0, 0, 0, 0, 0, 0, 0]"] ;
275 -> 279 ;
280 [label="Feature_13 <= 9.5\ngini = 0.419\nsamples = 118\nvalue = [2, 18, 1, 1, 88, 1, 2, 2, 2, 1]"] ;
150 -> 280 ;
281 [label="Feature_10 <= 10.0\ngini = 0.087\nsamples = 89\nvalue = [0, 3, 0, 0, 85, 0, 0, 0, 0, 1]"] ;
280 -> 281 ;
282 [label="Feature_37 <= 3.5\ngini = 0.045\nsamples = 87\nvalue = [0, 1, 0, 0, 85, 0, 0, 0, 0, 1]"] ;
281 -> 282 ;
283 [label="gini = 0.0\nsamples = 1\nvalue = [0, 1, 0, 0, 0, 0, 0, 0, 0, 0]"] ;
282 -> 283 ;
284 [label="Feature_5 <= 12.5\ngini = 0.023\nsamples = 86\nvalue = [0, 0, 0, 0, 85, 0, 0, 0, 0, 1]"] ;
282 -> 284 ;
285 [label="gini = 0.0\nsamples = 85\nvalue = [0, 0, 0, 0, 85, 0, 0, 0, 0, 0]"] ;
284 -> 285 ;
286 [label="gini = 0.0\nsamples = 1\nvalue = [0, 0, 0, 0, 0, 0, 0, 0, 0, 1]"] ;
284 -> 286 ;
287 [label="gini = 0.0\nsamples = 2\nvalue = [0, 2, 0, 0, 0, 0, 0, 0, 0, 0]"] ;
281 -> 287 ;
288 [label="Feature_27 <= 14.5\ngini = 0.699\nsamples = 29\nvalue = [2.0, 15.0, 1.0, 1.0, 3.0, 1.0, 2.0, 2.0, 2.0, 0.0]"] ;
280 -> 288 ;
289 [label="Feature_53 <= 2.0\ngini = 0.852\nsamples = 13\nvalue = [2, 0, 1, 1, 3, 1, 2, 2, 1, 0]"] ;
288 -> 289 ;
290 [label="Feature_43 <= 12.0\ngini = 0.375\nsamples = 4\nvalue = [0, 0, 0, 0, 3, 0, 0, 0, 1, 0]"] ;
289 -> 290 ;
291 [label="gini = 0.0\nsamples = 3\nvalue = [0, 0, 0, 0, 3, 0, 0, 0, 0, 0]"] ;
290 -> 291 ;
292 [label="gini = 0.0\nsamples = 1\nvalue = [0, 0, 0, 0, 0, 0, 0, 0, 1, 0]"] ;
290 -> 292 ;
293 [label="Feature_21 <= 15.5\ngini = 0.815\nsamples = 9\nvalue = [2, 0, 1, 1, 0, 1, 2, 2, 0, 0]"] ;
289 -> 293 ;
294 [label="Feature_50 <= 1.0\ngini = 0.776\nsamples = 7\nvalue = [0, 0, 1, 1, 0, 1, 2, 2, 0, 0]"] ;
293 -> 294 ;
295 [label="gini = 0.0\nsamples = 2\nvalue = [0, 0, 0, 0, 0, 0, 0, 2, 0, 0]"] ;
294 -> 295 ;
296 [label="Feature_14 <= 5.0\ngini = 0.72\nsamples = 5\nvalue = [0, 0, 1, 1, 0, 1, 2, 0, 0, 0]"] ;
294 -> 296 ;
297 [label="gini = 0.0\nsamples = 2\nvalue = [0, 0, 0, 0, 0, 0, 2, 0, 0, 0]"] ;
296 -> 297 ;
298 [label="Feature_21 <= 10.5\ngini = 0.667\nsamples = 3\nvalue = [0, 0, 1, 1, 0, 1, 0, 0, 0, 0]"] ;
296 -> 298 ;
299 [label="gini = 0.0\nsamples = 1\nvalue = [0, 0, 0, 0, 0, 1, 0, 0, 0, 0]"] ;
298 -> 299 ;
300 [label="Feature_21 <= 14.0\ngini = 0.5\nsamples = 2\nvalue = [0, 0, 1, 1, 0, 0, 0, 0, 0, 0]"] ;
298 -> 300 ;
301 [label="gini = 0.0\nsamples = 1\nvalue = [0, 0, 1, 0, 0, 0, 0, 0, 0, 0]"] ;
300 -> 301 ;
302 [label="gini = 0.0\nsamples = 1\nvalue = [0, 0, 0, 1, 0, 0, 0, 0, 0, 0]"] ;
300 -> 302 ;
303 [label="gini = 0.0\nsamples = 2\nvalue = [2, 0, 0, 0, 0, 0, 0, 0, 0, 0]"] ;
293 -> 303 ;
304 [label="Feature_10 <= 14.5\ngini = 0.117\nsamples = 16\nvalue = [0, 15, 0, 0, 0, 0, 0, 0, 1, 0]"] ;
288 -> 304 ;
305 [label="gini = 0.0\nsamples = 15\nvalue = [0, 15, 0, 0, 0, 0, 0, 0, 0, 0]"] ;
304 -> 305 ;
306 [label="gini = 0.0\nsamples = 1\nvalue = [0, 0, 0, 0, 0, 0, 0, 0, 1, 0]"] ;
304 -> 306 ;
}